import java.io.UnsupportedEncodingException;
import org.openrs2.deob.annotation.OriginalClass;
import org.openrs2.deob.annotation.OriginalMember;

@OriginalClass("client!lc")
public class class83 {

    @OriginalMember(owner = "client!lc", name = "c", descriptor = "Lqk;")
    public static class207 field1520 = class24.method212(255, "p11_full");

    @OriginalMember(owner = "client!lc", name = "f", descriptor = "[[B")
    public static byte[][] field1523 = new byte[1000][];

    @OriginalMember(owner = "client!lc", name = "e", descriptor = "Lqk;")
    public static class207 field1522 = class24.method212(255, "T");

    @OriginalMember(owner = "client!lc", name = "j", descriptor = "Lqk;")
    public static class207 field1527 = class24.method212(255, "Hierhin drehen");

    @OriginalMember(owner = "client!lc", name = "h", descriptor = "Lqk;")
    private static class207 field1525 = class24.method212(255, "Choose Option");

    @OriginalMember(owner = "client!lc", name = "p", descriptor = "Lqk;")
    public static class207 field1533 = field1525;

    @OriginalMember(owner = "client!lc", name = "q", descriptor = "J")
    public static long field1534 = 0L;

    @OriginalMember(owner = "client!lc", name = "i", descriptor = "Ldd;")
    public static class132 field1526 = new class132();

    @OriginalMember(owner = "client!lc", name = "r", descriptor = "[I")
    public static int[] field1535 = new int[2500];

    @OriginalMember(owner = "client!lc", name = "s", descriptor = "Lqk;")
    public static class207 field1536 = class24.method212(255, "::fpson");

    @OriginalMember(owner = "client!lc", name = "a", descriptor = "I")
    public static int field1518;

    @OriginalMember(owner = "client!lc", name = "b", descriptor = "I")
    public static int field1519;

    @OriginalMember(owner = "client!lc", name = "g", descriptor = "I")
    public int field1524;

    @OriginalMember(owner = "client!lc", name = "l", descriptor = "I")
    public static int field1529;

    @OriginalMember(owner = "client!lc", name = "n", descriptor = "I")
    public static int field1531;

    @OriginalMember(owner = "client!lc", name = "o", descriptor = "I")
    public static int field1532;

    @OriginalMember(owner = "client!lc", name = "k", descriptor = "Lef;")
    public class214 field1528;

    @OriginalMember(owner = "client!lc", name = "d", descriptor = "[I")
    public int[] field1521;

    @OriginalMember(owner = "client!lc", name = "m", descriptor = "[Luh;")
    public static class100[] field1530;

    @OriginalMember(owner = "client!lc", name = "a", descriptor = "()V")
    public static final void method618() {
        class151.field2643 = 0;
        label191: for (int var0 = 0; var0 < class170.field3016; var0++) {
            class115 var1 = class92.field1639[var0];
            if (class243.field4417 != null) {
                for (int var2 = 0; var2 < class243.field4417.length; var2++) {
                    if (class243.field4417[var2] != -1000000 && (var1.field1981 <= class243.field4417[var2] || var1.field2000 <= class243.field4417[var2]) && (var1.field1996 <= class233.field4286[var2] || var1.field1986 <= class233.field4286[var2]) && (var1.field1996 >= class207.field3674[var2] || var1.field1986 >= class207.field3674[var2]) && (var1.field1982 <= class40.field809[var2] || var1.field1994 <= class40.field809[var2]) && (var1.field1982 >= class285.field4998[var2] || var1.field1994 >= class285.field4998[var2])) {
                        continue label191;
                    }
                }
            }
            if (var1.field1989 == 1) {
                int var3 = var1.field2001 + class93.field1643 - class157.field2787;
                if (var3 >= 0 && var3 <= class93.field1643 + class93.field1643) {
                    int var4 = var1.field1983 + class93.field1643 - class73.field1348;
                    if (var4 < 0) {
                        var4 = 0;
                    }
                    int var5 = var1.field1995 + class93.field1643 - class73.field1348;
                    if (var5 > class93.field1643 + class93.field1643) {
                        var5 = class93.field1643 + class93.field1643;
                    }
                    boolean var6 = false;
                    while (var4 <= var5) {
                        if (class217.field3853[var3][var4++]) {
                            var6 = true;
                            break;
                        }
                    }
                    if (var6) {
                        int var7 = class207.field3676 - var1.field1996;
                        if (var7 > 32) {
                            var1.field2004 = 1;
                        } else {
                            if (var7 >= -32) {
                                continue;
                            }
                            var1.field2004 = 2;
                            var7 = -var7;
                        }
                        var1.field1978 = (var1.field1982 - class59.field1084 << 8) / var7;
                        var1.field1985 = (var1.field1994 - class59.field1084 << 8) / var7;
                        var1.field1988 = (var1.field1981 - class134.field2322 << 8) / var7;
                        var1.field1990 = (var1.field2000 - class134.field2322 << 8) / var7;
                        class79.field1442[class151.field2643++] = var1;
                    }
                }
            } else if (var1.field1989 == 2) {
                int var8 = var1.field1983 + class93.field1643 - class73.field1348;
                if (var8 >= 0 && var8 <= class93.field1643 + class93.field1643) {
                    int var9 = var1.field2001 + class93.field1643 - class157.field2787;
                    if (var9 < 0) {
                        var9 = 0;
                    }
                    int var10 = var1.field1980 + class93.field1643 - class157.field2787;
                    if (var10 > class93.field1643 + class93.field1643) {
                        var10 = class93.field1643 + class93.field1643;
                    }
                    boolean var11 = false;
                    while (var9 <= var10) {
                        if (class217.field3853[var9++][var8]) {
                            var11 = true;
                            break;
                        }
                    }
                    if (var11) {
                        int var12 = class59.field1084 - var1.field1982;
                        if (var12 > 32) {
                            var1.field2004 = 3;
                        } else {
                            if (var12 >= -32) {
                                continue;
                            }
                            var1.field2004 = 4;
                            var12 = -var12;
                        }
                        var1.field1999 = (var1.field1996 - class207.field3676 << 8) / var12;
                        var1.field2005 = (var1.field1986 - class207.field3676 << 8) / var12;
                        var1.field1988 = (var1.field1981 - class134.field2322 << 8) / var12;
                        var1.field1990 = (var1.field2000 - class134.field2322 << 8) / var12;
                        class79.field1442[class151.field2643++] = var1;
                    }
                }
            } else if (var1.field1989 == 4) {
                int var13 = var1.field1981 - class134.field2322;
                if (var13 > 128) {
                    int var14 = var1.field1983 + class93.field1643 - class73.field1348;
                    if (var14 < 0) {
                        var14 = 0;
                    }
                    int var15 = var1.field1995 + class93.field1643 - class73.field1348;
                    if (var15 > class93.field1643 + class93.field1643) {
                        var15 = class93.field1643 + class93.field1643;
                    }
                    if (var14 <= var15) {
                        int var16 = var1.field2001 + class93.field1643 - class157.field2787;
                        if (var16 < 0) {
                            var16 = 0;
                        }
                        int var17 = var1.field1980 + class93.field1643 - class157.field2787;
                        if (var17 > class93.field1643 + class93.field1643) {
                            var17 = class93.field1643 + class93.field1643;
                        }
                        boolean var18 = false;
                        label163: for (int var19 = var16; var19 <= var17; var19++) {
                            for (int var20 = var14; var20 <= var15; var20++) {
                                if (class217.field3853[var19][var20]) {
                                    var18 = true;
                                    break label163;
                                }
                            }
                        }
                        if (var18) {
                            var1.field2004 = 5;
                            var1.field1999 = (var1.field1996 - class207.field3676 << 8) / var13;
                            var1.field2005 = (var1.field1986 - class207.field3676 << 8) / var13;
                            var1.field1978 = (var1.field1982 - class59.field1084 << 8) / var13;
                            var1.field1985 = (var1.field1994 - class59.field1084 << 8) / var13;
                            class79.field1442[class151.field2643++] = var1;
                        }
                    }
                }
            }
        }
    }

    @OriginalMember(owner = "client!lc", name = "a", descriptor = "(BLpk;)V")
    public static final void method619(byte arg0, class99 arg1) {
        field1531++;
        if (class36.field698 || arg0 != 94) {
            return;
        }
        class23.method160();
        class165.field2909 = class164.method1185(arg1, -2048, class73.field1350);
        int var2 = class244.field4428;
        int var3 = var2 * 956 / 503;
        class165.field2909.method374((class31.field625 - var3) / 2, 0, var3, var2);
        class125.field2180 = class5.method28(false, arg1, class189.field3341);
        class125.field2180.method247(class31.field625 / 2 - class125.field2180.field661 / 2, 18);
        class36.field698 = true;
    }

    @OriginalMember(owner = "client!lc", name = "a", descriptor = "(BI)Lml;")
    public static final class287 method620(byte arg0, int arg1) {
        if (arg0 != -84) {
            return null;
        }
        field1518++;
        class287 var2 = (class287) class56.field1041.method1387((long) arg1, 120);
        if (var2 != null) {
            return var2;
        }
        class287 var3 = class80.method603(0, class160.field2839, arg1, false, class279.field4911);
        if (var3 != null) {
            class56.field1041.method1385((long) arg1, var3, (byte) -122);
        }
        return var3;
    }

    @OriginalMember(owner = "client!lc", name = "a", descriptor = "(II)Lef;")
    public static final class214 method621(int arg0, int arg1) {
        field1519++;
        int var2 = -53 % ((arg1 - 55) / 55);
        class214 var3 = (class214) class28.field571.method758(false, (long) arg0);
        if (var3 != null) {
            return var3;
        }
        byte[] var4;
        if (arg0 >= 32768) {
            var4 = class15.field240.method705(1, arg0 & 0x7FFF, -1);
        } else {
            var4 = class78.field1425.method705(1, arg0, -1);
        }
        class214 var5 = new class214();
        if (var4 != null) {
            var5.method1531(new class149(var4), -1);
        }
        if (arg0 >= 32768) {
            var5.method1522(32768);
        }
        class28.field571.method759((long) arg0, 2, var5);
        return var5;
    }

    @OriginalMember(owner = "client!lc", name = "a", descriptor = "(Z)V")
    public static final void method622(boolean arg0) {
        class150.field2631 = true;
        field1532++;
        class30.field619 = 0;
        class86.field1576 = 0;
        class115.field1979 = 0;
        class233.field4287 = 0;
        class80.field1459 = 0;
        class94.field1672 = 0;
        class235.field4337 = 0;
        class140.field2419 = 0;
        class201.field3552 = 0;
        class13.field177 = 0;
        class247.field4483 = 0;
        class138.field2398 = 0;
        class207.field3670 = 0;
        class1.field22 = 0;
        class113.field1966 = 0;
        class252.field4530 = 0;
        class3.field44 = 0;
        class82.field1499 = 0;
        class225.field4103 = 0;
        class65.field1162 = 0;
        class207.field3660 = 0;
        class147.field2534 = 0;
        class167.field2936 = 0;
        class149.field2575 = 0;
        class149.field2609 = 0;
        class280.field4922 = 0;
        class21.field337 = 0;
        class45.field891 = 0;
        class204.field3585 = 0;
        class269.field4764 = 0;
        class25.field529 = 0;
        class248.field4492 = 0;
        class286.field5044 = 0;
        class215.field3832 = 0;
        class137.field2377 = 0;
        class129.field2262 = 0;
        class220.field4007 = 0;
        class279.field4887 = 0;
        class1.field19 = 0;
        class73.field1349 = 0;
        class230.field4229 = 0;
        class149.field2571 = 0;
        class112.field1950 = 0;
        class221.field4064 = 0;
        class207.field3666 = 0;
        class107.field1894 = 0;
        class194.field3412 = 0;
        class8.field107 = 0;
        class207.field3656 = 0;
        class232.field4272 = 0;
        class197.field3465 = 0;
        class232.field4259 = 0;
        class156.field2747 = 0;
        class177.field3193 = 0;
        class44.field880 = 0;
        class202.field3571 = 0;
        class215.field3814 = 0;
        class41.field817 = 0;
        class188.field3317 = 0;
        class191.field3372 = 0;
        client.field2684 = 0;
        class236.field4355 = 0;
        class151.field2642 = 0;
        class252.field4533 = 0;
        class190.field3357 = 0;
        class24.field494 = 0;
        class22.field432 = 0;
        class278.field4875 = 0;
        class207.field3641 = 0;
        class94.field1683 = 0;
        class215.field3815 = 0;
        class180.field3228 = 0;
        class220.field3917 = 0;
        class147.field2521 = 0;
        class262.field4667 = 0;
        class24.field445 = 0;
        class24.field443 = 0;
        class81.field1470 = 0;
        class44.field873 = 0;
        class149.field2623 = 0;
        class147.field2532 = 0;
        class280.field4924 = 0;
        class160.field2824 = 0;
        class132.field2277 = 0;
        class254.field4559 = 0;
        class60.field1106 = 0;
        class123.field2136 = 0;
        class162.field2857 = 0;
        class20.field330 = 0;
        class190.field3346 = 0;
        class263.field4677 = 0;
        class200.field3526 = 0;
        class78.field1419 = 0;
        class74.field1362 = 0;
        class199.field3486 = 0;
        class98.field1732 = 0;
        class21.field335 = 0;
        class72.field1313 = 0;
        class99.field1749 = 0;
        class72.field1308 = 0;
        class60.field1105 = 0;
        class207.field3645 = 0;
        class70.field1251 = 0;
        class82.field1506 = 0;
        class55.field1035 = 0;
        class74.field1368 = 0;
        class265.field4689 = 0;
        class220.field3910 = 0;
        class170.field2997 = 0;
        class82.field1495 = 0;
        class15.field248 = 0;
        class162.field2861 = 0;
        class165.field2908 = 0;
        class44.field866 = 0;
        class207.field3638 = 0;
        class117.field2038 = 0;
        class105.field1865 = 0;
        class189.field3332 = 0;
        class207.field3629 = 0;
        class72.field1333 = 0;
        class59.field1086 = 0;
        class51.field977 = 0;
        class46.field921 = 0;
        class178.field3213 = 0;
        class51.field982 = 0;
        class72.field1323 = 0;
        class283.field4971 = 0;
        class89.field1608 = 0;
        class99.field1776 = 0;
        class9.field135 = 0;
        class173.field3076 = 0;
        class117.field2020 = 0;
        class224.field4089 = 0;
        class169.field2980 = 0;
        class24.field492 = 0;
        class207.field3650 = 0;
        class56.field1049 = 0;
        class33.field664 = 0;
        class60.field1090 = 0;
        class207.field3628 = 0;
        class190.field3356 = 0;
        class99.field1756 = 0;
        class107.field1889 = 0;
        class98.field1728 = 0;
        class28.field565 = 0;
        class87.field1588 = 0;
        class24.field459 = 0;
        class153.field2665 = 0;
        class143.field2478 = 0;
        class173.field3104 = 0;
        class155.field2719 = 0;
        class24.field475 = 0;
        class225.field4095 = 0;
        class161.field2853 = 0;
        class271.field4784 = 0;
        class149.field2612 = 0;
        class16.field259 = 0;
        class276.field4845 = 0;
        class124.field2145 = 0;
        class149.field2596 = 0;
        client.field2687 = 0;
        class30.field617 = 0;
        class21.field348 = 0;
        class256.field4579 = 0;
        class45.field907 = 0;
        class149.field2589 = 0;
        class99.field1766 = 0;
        class41.field818 = 0;
        class255.field4573 = 0;
        class26.field541 = 0;
        class227.field4169 = 0;
        class113.field1972 = 0;
        class117.field2023 = 0;
        class74.field1365 = 0;
        class271.field4787 = 0;
        class235.field4344 = 0;
        class3.field53 = 0;
        class170.field2996 = 0;
        class155.field2725 = 0;
        class216.field3842 = 0;
        class220.field3941 = 0;
        class288.field5145 = 0;
        class219.field3869 = 0;
        class52.field1005 = 0;
        class220.field3899 = 0;
        class208.field3695 = 0;
        class120.field2071 = 0;
        class16.field252 = 0;
        class143.field2473 = 0;
        class199.field3487 = 0;
        class107.field1891 = 0;
        class286.field5091 = 0;
        class269.field4758 = 0;
        class177.field3200 = 0;
        class112.field1942 = 0;
        class279.field4901 = 0;
        class112.field1961 = 0;
        class125.field2172 = 0;
        class247.field4474 = 0;
        class99.field1769 = 0;
        class90.field1611 = 0;
        class6.field91 = 0;
        class99.field1772 = 0;
        class51.field989 = 0;
        class40.field794 = 0;
        class33.field670 = 0;
        class113.field1970 = 0;
        class160.field2825 = 0;
        class286.field5042 = 0;
        class170.field3010 = 0;
        class250.field4520 = 0;
        class230.field4225 = 0;
        class176.field3178 = 0;
        class117.field2029 = 0;
        class269.field4761 = 0;
        class189.field3335 = 0;
        class275.field4816 = 0;
        class86.field1567 = 0;
        class14.field231 = 0;
        class94.field1664 = 0;
        class22.field376 = 0;
        class164.field2905 = 0;
        class16.field250 = 0;
        class194.field3413 = 0;
        class254.field4554 = 0;
        class155.field2712 = 0;
        class55.field1027 = 0;
        class74.field1367 = 0;
        class287.field5118 = 0;
        class240.field4382 = 0;
        class178.field3214 = 0;
        class287.field5120 = 0;
        class74.field1370 = 0;
        class275.field4825 = 0;
        class162.field2871 = 0;
        class32.field645 = 0;
        class18.field296 = 0;
        class225.field4097 = 0;
        class123.field2132 = 0;
        class187.field3304 = 0;
        class164.field2893 = 0;
        class118.field2046 = 0;
        class72.field1316 = 0;
        class110.field1921 = 0;
        class150.field2641 = 0;
        class149.field2602 = 0;
        class79.field1443 = 0;
        class262.field4659 = 0;
        class256.field4584 = 0;
        class178.field3205 = 0;
        class149.field2588 = 0;
        class207.field3620 = 0;
        class213.field3781 = 0;
        class147.field2523 = 0;
        class125.field2176 = 0;
        class11.field165 = 0;
        class69.field1224 = 0;
        class140.field2410 = 0;
        class74.field1358 = 0;
        class65.field1152 = 0;
        class173.field3056 = 0;
        class126.field2191 = 0;
        class85.field1550 = 0;
        class85.field1548 = 0;
        class279.field4900 = 0;
        class43.field835 = 0;
        class14.field201 = 0;
        class149.field2601 = 0;
        class3.field42 = 0;
        class174.field3127 = 0;
        class259.field4614 = 0;
        class232.field4277 = 0;
        class112.field1946 = 0;
        class2.field34 = 0;
        class256.field4586 = 0;
        class68.field1212 = 0;
        class43.field850 = 0;
        class244.field4425 = 0;
        class149.field2580 = 0;
        class69.field1221 = 0;
        class260.field4630 = 0;
        class159.field2807 = 0;
        class252.field4529 = 0;
        class121.field2096 = 0;
        class248.field4497 = 0;
        class155.field2704 = 0;
        class286.field5099 = 0;
        client.field2697 = 0;
        class100.field1804 = 0;
        class90.field1610 = 0;
        class191.field3369 = 0;
        class54.field1018 = 0;
        class86.field1573 = 0;
        class237.field4363 = 0;
        class136.field2340 = 0;
        class260.field4640 = 0;
        class51.field986 = 0;
        class39.field784 = 0;
        class22.field356 = 0;
        class149.field2619 = 0;
        class105.field1872 = 0;
        class174.field3149 = 0;
        class155.field2715 = 0;
        class69.field1231 = 0;
        class75.field1373 = 0;
        class57.field1056 = 0;
        class99.field1744 = 0;
        class254.field4545 = 0;
        class40.field799 = 0;
        class99.field1777 = 0;
        class173.field3054 = 0;
        class275.field4818 = 0;
        class212.field3770 = 0;
        class78.field1423 = 0;
        class213.field3779 = 0;
        class185.field3277 = 0;
        class117.field2016 = 0;
        class44.field875 = 0;
        class99.field1783 = 0;
        class196.field3444 = 0;
        class99.field1787 = 0;
        class78.field1421 = 0;
        class187.field3300 = 0;
        class149.field2607 = 0;
        class24.field484 = 0;
        class117.field2027 = 0;
        class207.field3633 = 0;
        class240.field4383 = 0;
        class117.field2018 = 0;
        class197.field3467 = 0;
        class204.field3596 = 0;
        class24.field490 = 0;
        class220.field3927 = 0;
        class149.field2603 = 0;
        class49.field959 = 0;
        class49.field953 = 0;
        class41.field823 = 0;
        class270.field4774 = 0;
        class162.field2867 = 0;
        class284.field4990 = 0;
        class207.field3673 = 0;
        class249.field4509 = 0;
        class284.field4993 = 0;
        class248.field4494 = 0;
        class193.field3394 = 0;
        class94.field1662 = 0;
        class99.field1763 = 0;
        class39.field791 = 0;
        class284.field4988 = 0;
        class138.field2393 = 0;
        class286.field5040 = 0;
        class169.field2976 = 0;
        class149.field2581 = 0;
        class260.field4634 = 0;
        class22.field424 = 0;
        class250.field4519 = 0;
        class115.field1997 = 0;
        class207.field3647 = 0;
        class200.field3510 = 0;
        class212.field3769 = 0;
        class288.field5130 = 0;
        class6.field96 = 0;
        class267.field4728 = 0;
        class220.field3922 = 0;
        class276.field4841 = 0;
        class74.field1360 = 0;
        class60.field1101 = 0;
        class127.field2206 = 0;
        class207.field3623 = 0;
        class254.field4552 = 0;
        class269.field4754 = 0;
        class18.field301 = 0;
        class286.field5085 = 0;
        class187.field3309 = 0;
        class240.field4377 = 0;
        class250.field4525 = 0;
        class207.field3643 = 0;
        class285.field5002 = 0;
        class246.field4460 = 0;
        class207.field3634 = 0;
        class248.field4502 = 0;
        class247.field4472 = 0;
        class49.field967 = 0;
        class233.field4290 = 0;
        class263.field4681 = 0;
        class79.field1447 = 0;
        class4.field62 = 0;
        class94.field1667 = 0;
        class268.field4737 = 0;
        class72.field1325 = 0;
        class118.field2049 = 0;
        class149.field2576 = 0;
        class135.field2332 = 0;
        class94.field1655 = 0;
        class49.field970 = 0;
        class151.field2646 = 0;
        class136.field2342 = 0;
        class57.field1057 = 0;
        class280.field4931 = 0;
        class242.field4412 = 0;
        class24.field454 = 0;
        class46.field913 = 0;
        class127.field2197 = 0;
        class45.field884 = 0;
        class162.field2856 = 0;
        class204.field3590 = 0;
        class90.field1619 = 0;
        class170.field3013 = 0;
        class24.field478 = 0;
        class247.field4482 = 0;
        class282.field4953 = 0;
        class248.field4500 = 0;
        class102.field1841 = 0;
        class199.field3497 = 0;
        class12.field174 = 0;
        class164.field2897 = 0;
        class99.field1770 = 0;
        class171.field3033 = 0;
        class149.field2624 = 0;
        class82.field1501 = 0;
        class85.field1558 = 0;
        class177.field3199 = 0;
        class194.field3411 = 0;
        class94.field1661 = 0;
        class224.field4093 = 0;
        class207.field3639 = 0;
        class56.field1044 = 0;
        class204.field3600 = 0;
        class94.field1657 = 0;
        class3.field48 = 0;
        class277.field4869 = 0;
        class14.field227 = 0;
        class78.field1420 = 0;
        class24.field479 = 0;
        class271.field4785 = 0;
        class18.field273 = 0;
        class41.field826 = 0;
        class281.field4942 = 0;
        class155.field2717 = 0;
        class256.field4574 = 0;
        class107.field1908 = 0;
        class169.field2983 = 0;
        class98.field1733 = 0;
        class179.field3219 = 0;
        class86.field1574 = 0;
        class124.field2139 = 0;
        class220.field3923 = 0;
        class94.field1656 = 0;
        class236.field4352 = 0;
        class75.field1381 = 0;
        class74.field1355 = 0;
        class127.field2208 = 0;
        class170.field3004 = 0;
        class268.field4740 = 0;
        class24.field503 = 0;
        class43.field848 = 0;
        class45.field893 = 0;
        class94.field1679 = 0;
        class207.field3667 = 0;
        class240.field4384 = 0;
        class5.field85 = 0;
        class262.field4673 = 0;
        class110.field1929 = 0;
        class67.field1202 = 0;
        class256.field4575 = 0;
        class36.field686 = 0;
        class248.field4501 = 0;
        class62.field1133 = 0;
        class271.field4788 = 0;
        class175.field3159 = 0;
        class158.field2800 = 0;
        class57.field1055 = 0;
        class149.field2587 = 0;
        class60.field1108 = 0;
        class5.field73 = 0;
        class68.field1216 = 0;
        class171.field3029 = 0;
        class158.field2795 = 0;
        class24.field480 = 0;
        class214.field3791 = 0;
        class199.field3490 = 0;
        class240.field4380 = 0;
        class163.field2876 = 0;
        class191.field3365 = 0;
        class245.field4446 = 0;
        class275.field4835 = 0;
        class13.field184 = 0;
        class24.field465 = 0;
        class232.field4253 = 0;
        class132.field2285 = 0;
        class155.field2701 = 0;
        class149.field2613 = 0;
        class112.field1957 = 0;
        class82.field1508 = 0;
        class244.field4429 = 0;
        class149.field2572 = 0;
        class275.field4817 = 0;
        class56.field1045 = 0;
        class147.field2518 = 0;
        class108.field1916 = 0;
        class174.field3124 = 0;
        class86.field1569 = 0;
        class99.field1780 = 0;
        class16.field260 = 0;
        class207.field3630 = 0;
        class157.field2775 = 0;
        class159.field2817 = 0;
        class175.field3172 = 0;
        class27.field549 = 0;
        class173.field3074 = 0;
        class185.field3276 = 0;
        class107.field1897 = 0;
        class147.field2526 = 0;
        class177.field3191 = 0;
        class220.field3956 = 0;
        class281.field4935 = 0;
        class15.field245 = 0;
        class197.field3469 = 0;
        class143.field2475 = 0;
        class232.field4261 = 0;
        class132.field2289 = 0;
        class204.field3582 = 0;
        class286.field5032 = 0;
        class200.field3537 = 0;
        class94.field1680 = 0;
        class157.field2776 = 0;
        class182.field3248 = 0;
        class281.field4941 = 0;
        class247.field4488 = 0;
        class195.field3431 = 0;
        class24.field486 = 0;
        class266.field4715 = 0;
        class135.field2338 = 0;
        class191.field3363 = 0;
        class86.field1568 = 0;
        class33.field660 = 0;
        class249.field4510 = 0;
        class51.field990 = 0;
        class265.field4704 = 0;
        class149.field2569 = 0;
        class193.field3399 = 0;
        class119.field2065 = 0;
        class225.field4102 = 0;
        class94.field1678 = 0;
        class34.field681 = 0;
        class81.field1479 = 0;
        class129.field2254 = 0;
        class173.field3075 = 0;
        class163.field2877 = 0;
        class124.field2157 = 0;
        class4.field70 = 0;
        class41.field821 = 0;
        class275.field4832 = 0;
        class207.field3624 = 0;
        class124.field2166 = 0;
        class155.field2707 = 0;
        class113.field1963 = 0;
        class60.field1109 = 0;
        class262.field4671 = 0;
        class127.field2194 = 0;
        class52.field1007 = 0;
        class147.field2517 = 0;
        class124.field2143 = 0;
        class249.field4507 = 0;
        class87.field1585 = 0;
        class202.field3564 = 0;
        class200.field3515 = 0;
        class192.field3387 = 0;
        class164.field2900 = 0;
        class262.field4674 = 0;
        class259.field4628 = 0;
        class220.field4028 = 0;
        class220.field3982 = 0;
        class20.field321 = 0;
        class207.field3646 = 0;
        class74.field1369 = 0;
        class248.field4490 = 0;
        class177.field3186 = 0;
        class55.field1036 = 0;
        class256.field4576 = 0;
        class44.field858 = 0;
        class149.field2598 = 0;
        class44.field879 = 0;
        class99.field1767 = 0;
        class155.field2706 = 0;
        class9.field131 = 0;
        class153.field2661 = 0;
        class60.field1089 = 0;
        class149.field2573 = 0;
        class18.field309 = 0;
        class86.field1570 = 0;
        class3.field46 = 0;
        class52.field1001 = 0;
        class209.field3708 = 0;
        class207.field3653 = 0;
        class250.field4517 = 0;
        class11.field158 = 0;
        class24.field470 = 0;
        class14.field221 = 0;
        class230.field4223 = 0;
        class160.field2828 = 0;
        class207.field3622 = 0;
        class220.field3962 = 0;
        class99.field1760 = 0;
        class247.field4485 = 0;
        class219.field3872 = 0;
        class279.field4910 = 0;
        class227.field4172 = 0;
        class54.field1015 = 0;
        class147.field2514 = 0;
        class5.field78 = 0;
        class20.field332 = 0;
        class14.field226 = 0;
        client.field2690 = 0;
        class259.field4625 = 0;
        class163.field2874 = 0;
        class245.field4436 = 0;
        class47.field936 = 0;
        class235.field4338 = 0;
        class282.field4954 = 0;
        class220.field3978 = 0;
        class267.field4723 = 0;
        class159.field2822 = 0;
        class140.field2401 = 0;
        class118.field2052 = 0;
        class134.field2326 = 0;
        class15.field247 = 0;
        class188.field3331 = 0;
        class286.field5024 = 0;
        class177.field3189 = 0;
        class69.field1229 = 0;
        class82.field1504 = 0;
        class24.field469 = 0;
        class98.field1734 = 0;
        class65.field1163 = 0;
        class80.field1460 = 0;
        class94.field1677 = 0;
        class187.field3298 = 0;
        class285.field5000 = 0;
        class287.field5119 = 0;
        class196.field3460 = 0;
        class149.field2599 = 0;
        class193.field3396 = 0;
        class214.field3790 = 0;
        class101.field1826 = 0;
        class55.field1033 = 0;
        class99.field1750 = 0;
        class204.field3603 = 0;
        class176.field3182 = 0;
        class150.field2634 = 0;
        class149.field2577 = 0;
        class248.field4504 = 0;
        class116.field2006 = 0;
        class237.field4371 = 0;
        class75.field1387 = 0;
        class281.field4944 = 0;
        class279.field4894 = 0;
        class252.field4528 = 0;
        class242.field4407 = 0;
        class71.field1271 = 0;
        class69.field1233 = 0;
        class285.field5006 = 0;
        class99.field1753 = 0;
        class87.field1586 = 0;
        class43.field843 = 0;
        class72.field1332 = 0;
        class150.field2627 = 0;
        class9.field118 = 0;
        class13.field181 = 0;
        class240.field4379 = 0;
        class43.field836 = 0;
        class175.field3160 = 0;
        class11.field154 = 0;
        class154.field2668 = 0;
        class183.field3263 = 0;
        class158.field2796 = 0;
        class262.field4662 = 0;
        class170.field3003 = 0;
        class190.field3355 = 0;
        class49.field964 = 0;
        class98.field1724 = 0;
        class98.field1723 = 0;
        class10.field143 = 0;
        class118.field2041 = 0;
        class54.field1016 = 0;
        class45.field897 = 0;
        class36.field695 = 0;
        class215.field3823 = 0;
        class186.field3289 = 0;
        class178.field3207 = 0;
        class172.field3042 = 0;
        class237.field4361 = 0;
        class149.field2578 = 0;
        class151.field2651 = 0;
        class45.field881 = 0;
        class284.field4985 = 0;
        class18.field278 = 0;
        class132.field2283 = 0;
        class107.field1900 = 0;
        class45.field903 = 0;
        class214.field3792 = 0;
        class164.field2895 = 0;
        class174.field3125 = 0;
        class2.field31 = 0;
        class276.field4847 = 0;
        class207.field3669 = 0;
        class119.field2066 = 0;
        class187.field3296 = 0;
        class169.field2984 = 0;
        class214.field3795 = 0;
        class150.field2626 = 0;
        class24.field468 = 0;
        field1532 = 0;
        class275.field4823 = 0;
        class202.field3572 = 0;
        class24.field498 = 0;
        class232.field4268 = 0;
        class280.field4925 = 0;
        class78.field1416 = 0;
        class286.field5078 = 0;
        class45.field892 = 0;
        class241.field4398 = 0;
        class60.field1107 = 0;
        class157.field2782 = 0;
        class100.field1794 = 0;
        class93.field1652 = 0;
        class99.field1746 = 0;
        class217.field3851 = 0;
        class228.field4188 = 0;
        class149.field2586 = 0;
        class153.field2658 = 0;
        class149.field2583 = 0;
        class199.field3476 = 0;
        class285.field5003 = 0;
        class235.field4347 = 0;
        class149.field2584 = 0;
        class128.field2231 = 0;
        class232.field4276 = 0;
        class41.field819 = 0;
        class207.field3649 = 0;
        class49.field975 = 0;
        class246.field4457 = 0;
        class5.field76 = 0;
        class245.field4450 = 0;
        class170.field3011 = 0;
        class236.field4358 = 0;
        class207.field3636 = 0;
        class99.field1757 = 0;
        class277.field4858 = 0;
        class107.field1896 = 0;
        class163.field2885 = 0;
        class190.field3343 = 0;
        class281.field4939 = 0;
        class170.field3005 = 0;
        class267.field4727 = 0;
        class18.field272 = 0;
        class149.field2592 = 0;
        class99.field1742 = 0;
        class280.field4927 = 0;
        class172.field3048 = 0;
        class24.field464 = 0;
        class3.field49 = 0;
        class94.field1674 = 0;
        class90.field1614 = 0;
        class214.field3785 = 0;
        class90.field1623 = 0;
        class24.field471 = 0;
        class124.field2159 = 0;
        class132.field2276 = 0;
        class270.field4773 = 0;
        class172.field3038 = 0;
        class46.field916 = 0;
        class190.field3352 = 0;
        class65.field1159 = 0;
        class24.field451 = 0;
        class92.field1633 = 0;
        class212.field3765 = 0;
        class46.field923 = 0;
        class117.field2040 = 0;
        class232.field4252 = 0;
        field1519 = 0;
        class147.field2525 = 0;
        class54.field1017 = 0;
        class213.field3782 = 0;
        class268.field4731 = 0;
        class72.field1292 = 0;
        class277.field4864 = 0;
        class2.field32 = 0;
        class129.field2252 = 0;
        class87.field1579 = 0;
        class28.field563 = 0;
        class2.field28 = 0;
        class140.field2417 = 0;
        class45.field902 = 0;
        class127.field2216 = 0;
        class287.field5116 = 0;
        class155.field2710 = 0;
        class149.field2585 = 0;
        class60.field1097 = 0;
        class198.field3475 = 0;
        class227.field4155 = 0;
        class207.field3657 = 0;
        class59.field1083 = 0;
        class140.field2425 = 0;
        class191.field3361 = 0;
        class24.field462 = 0;
        class12.field175 = 0;
        class6.field87 = 0;
        class15.field236 = 0;
        class147.field2513 = 0;
        class174.field3151 = 0;
        class255.field4568 = 0;
        client.field2677 = 0;
        class155.field2711 = 0;
        class108.field1911 = 0;
        class113.field1976 = 0;
        class67.field1196 = 0;
        class160.field2835 = 0;
        class247.field4475 = 0;
        class36.field691 = 0;
        class24.field500 = 0;
        class255.field4570 = 0;
        class195.field3422 = 0;
        class137.field2373 = 0;
        class44.field867 = 0;
        class67.field1194 = 0;
        class24.field501 = 0;
        class197.field3464 = 0;
        class99.field1745 = 0;
        class60.field1092 = 0;
        class233.field4293 = 0;
        class199.field3480 = 0;
        class93.field1642 = 0;
        class68.field1219 = 0;
        client.field2693 = 0;
        class106.field1878 = 0;
        class132.field2294 = 0;
        class287.field5117 = 0;
        class170.field3012 = 0;
        class149.field2617 = 0;
        class215.field3822 = 0;
        class73.field1342 = 0;
        class160.field2834 = 0;
        class199.field3503 = 0;
        class10.field141 = 0;
        class160.field2833 = 0;
        class284.field4982 = 0;
        class24.field491 = 0;
        class241.field4396 = 0;
        class9.field117 = 0;
        class99.field1775 = 0;
        class8.field115 = 0;
        class161.field2846 = 0;
        client.field2679 = 0;
        class153.field2662 = 0;
        class51.field985 = 0;
        class221.field4066 = 0;
        class190.field3350 = 0;
        class118.field2043 = 0;
        class113.field1967 = 0;
        class202.field3575 = 0;
        class141.field2435 = 0;
        class27.field547 = 0;
        class21.field343 = 0;
        class247.field4473 = 0;
        class120.field2069 = 0;
        class14.field206 = 0;
        class92.field1629 = 0;
        class36.field688 = 0;
        class24.field447 = 0;
        class120.field2081 = 0;
        class220.field3997 = 0;
        class119.field2057 = 0;
        class244.field4427 = 0;
        class24.field496 = 0;
        class49.field963 = 0;
        class107.field1902 = 0;
        class232.field4250 = 0;
        class112.field1956 = 0;
        class259.field4616 = 0;
        class270.field4769 = 0;
        class286.field5041 = 0;
        class259.field4629 = 0;
        class214.field3810 = 0;
        class149.field2616 = 0;
        class182.field3247 = 0;
        class22.field389 = 0;
        class24.field502 = 0;
        class99.field1741 = 0;
        class234.field4319 = 0;
        class45.field883 = 0;
        class72.field1322 = 0;
        class173.field3079 = 0;
        class234.field4314 = 0;
        class94.field1673 = 0;
        class3.field50 = 0;
        class230.field4234 = 0;
        class108.field1915 = 0;
        class180.field3230 = 0;
        class149.field2567 = 0;
        class279.field4898 = 0;
        class106.field1880 = 0;
        class276.field4853 = 0;
        class81.field1485 = 0;
        class117.field2035 = 0;
        class49.field971 = 0;
        class277.field4862 = 0;
        class70.field1247 = 0;
        class24.field505 = 0;
        class11.field155 = 0;
        class275.field4808 = 0;
        class160.field2829 = 0;
        class214.field3799 = 0;
        class287.field5121 = 0;
        class244.field4434 = 0;
        class277.field4857 = 0;
        class202.field3566 = 0;
        class39.field793 = 0;
        class247.field4470 = 0;
        class235.field4343 = 0;
        class246.field4462 = 0;
        class288.field5134 = 0;
        class99.field1788 = 0;
        class207.field3625 = 0;
        class165.field2911 = 0;
        class73.field1347 = 0;
        class273.field4807 = 0;
        field1529 = 0;
        class95.field1687 = 0;
        class60.field1099 = 0;
        class164.field2892 = 0;
        class9.field134 = 0;
        class45.field886 = 0;
        class276.field4837 = 0;
        class4.field59 = 0;
        class268.field4736 = 0;
        class270.field4777 = 0;
        class132.field2280 = 0;
        class282.field4957 = 0;
        class101.field1824 = 0;
        class208.field3691 = 0;
        class52.field1008 = 0;
        class200.field3514 = 0;
        class197.field3471 = 0;
        class169.field2985 = 0;
        class234.field4333 = 0;
        class207.field3668 = 0;
        class129.field2253 = 0;
        class180.field3227 = 0;
        class34.field676 = 0;
        class81.field1482 = 0;
        class129.field2258 = 0;
        class149.field2574 = 0;
        class81.field1483 = 0;
        class234.field4306 = 0;
        class94.field1669 = 0;
        class49.field960 = 0;
        class232.field4278 = 0;
        class70.field1256 = 0;
        class269.field4760 = 0;
        class49.field955 = 0;
        class153.field2657 = 0;
        class248.field4506 = 0;
        class117.field2022 = 0;
        class147.field2512 = 0;
        class94.field1671 = 0;
        class55.field1028 = 0;
        class20.field324 = 0;
        class22.field406 = 0;
        class197.field3461 = 0;
        class149.field2605 = 0;
        class121.field2098 = 0;
        class85.field1547 = 0;
        class219.field3858 = 0;
        class133.field2311 = 0;
        class99.field1754 = 0;
        class246.field4458 = 0;
        class207.field3637 = 0;
        class191.field3367 = 0;
        class199.field3492 = 0;
        class14.field223 = 0;
        class28.field569 = 0;
        class67.field1192 = 0;
        client.field2685 = 0;
        class74.field1359 = 0;
        class236.field4354 = 0;
        class169.field2954 = 0;
        class277.field4860 = 0;
        class51.field981 = 0;
        class200.field3517 = 0;
        class132.field2284 = 0;
        class124.field2141 = 0;
        class207.field3631 = 0;
        class105.field1866 = 0;
        class51.field979 = 0;
        class24.field504 = 0;
        class216.field3843 = 0;
        class214.field3805 = 0;
        class60.field1102 = 0;
        class40.field795 = 0;
        class117.field2037 = 0;
        class112.field1954 = 0;
        class286.field5058 = 0;
        class151.field2653 = 0;
        class127.field2207 = 0;
        class170.field3009 = 0;
        class185.field3278 = 0;
        class150.field2630 = 0;
        class62.field1132 = 0;
        class78.field1413 = 0;
        class149.field2600 = 0;
        class94.field1663 = 0;
        class288.field5144 = 0;
        class287.field5114 = 0;
        class112.field1959 = 0;
        class94.field1659 = 0;
        class149.field2566 = 0;
        class73.field1346 = 0;
        class67.field1188 = 0;
        class58.field1075 = 0;
        class155.field2700 = 0;
        class19.field317 = 0;
        class149.field2591 = 0;
        class260.field4635 = 0;
        class156.field2734 = 0;
        class208.field3692 = 0;
        class141.field2438 = 0;
        class230.field4227 = 0;
        class31.field638 = 0;
        class149.field2570 = 0;
        class22.field358 = 0;
        class94.field1666 = 0;
        class214.field3813 = 0;
        class30.field616 = 0;
        class132.field2288 = 0;
        field1518 = 0;
        class170.field3008 = 0;
        class159.field2820 = 0;
        class155.field2703 = 0;
        class247.field4477 = 0;
        class195.field3425 = 0;
        class60.field1091 = 0;
        class263.field4679 = 0;
        class65.field1175 = 0;
        class214.field3809 = 0;
        class163.field2878 = 0;
        class279.field4912 = 0;
        class183.field3262 = 0;
        class240.field4378 = 0;
        class192.field3382 = 0;
        class173.field3098 = 0;
        class67.field1189 = 0;
        class179.field3217 = 0;
        class173.field3078 = 0;
        class101.field1817 = 0;
        class81.field1465 = 0;
        class268.field4739 = 0;
        class284.field4984 = 0;
        class230.field4221 = 0;
        class67.field1204 = 0;
        class94.field1682 = 0;
        class206.field3606 = 0;
        class75.field1382 = 0;
        class169.field2969 = 0;
        class14.field214 = 0;
        class149.field2579 = 0;
        class186.field3288 = 0;
        class199.field3504 = 0;
        class167.field2928 = 0;
        class149.field2611 = 0;
        class107.field1903 = 0;
        class234.field4308 = 0;
        class39.field790 = 0;
        class45.field909 = 0;
        class230.field4218 = 0;
        class112.field1962 = 0;
        class59.field1087 = 0;
        class99.field1747 = 0;
        class207.field3640 = 0;
        class256.field4577 = 0;
        class65.field1172 = 0;
        class167.field2929 = 0;
        class244.field4430 = 0;
        class227.field4163 = 0;
        class237.field4368 = 0;
        class207.field3654 = 0;
        class127.field2199 = 0;
        class111.field1934 = 0;
        class158.field2799 = 0;
        class230.field4233 = 0;
        class191.field3362 = 0;
        class282.field4952 = 0;
        class265.field4690 = 0;
        class195.field3428 = 0;
        class233.field4302 = 0;
        class283.field4970 = 0;
        class22.field353 = 0;
        class278.field4874 = 0;
        class214.field3812 = 0;
        class147.field2533 = 0;
        class159.field2816 = 0;
        class220.field4060 = 0;
        class179.field3221 = 0;
        class188.field3318 = 0;
        class110.field1920 = 0;
        class10.field146 = 0;
        class5.field86 = 0;
        class41.field812 = 0;
        class165.field2922 = 0;
        class67.field1195 = 0;
        class117.field2030 = 0;
        class172.field3044 = 0;
        class129.field2247 = 0;
        class155.field2714 = 0;
        class87.field1589 = 0;
        class232.field4244 = 0;
        class155.field2702 = 0;
        class169.field2956 = 0;
        class32.field655 = 0;
        class72.field1305 = 0;
        class13.field187 = 0;
        class234.field4310 = 0;
        class44.field859 = 0;
        class256.field4583 = 0;
        class232.field4242 = 0;
        class178.field3208 = 0;
        class207.field3635 = 0;
        class94.field1668 = 0;
        class131.field2271 = 0;
        class108.field1912 = 0;
        class124.field2155 = 0;
        class202.field3574 = 0;
        class67.field1187 = 0;
        class119.field2055 = 0;
        class245.field4452 = 0;
        class28.field576 = 0;
        class159.field2814 = 0;
        class55.field1031 = 0;
        class112.field1951 = 0;
        class32.field644 = 0;
        class14.field204 = 0;
        class65.field1176 = 0;
        class133.field2306 = 0;
        class117.field2031 = 0;
        class170.field2999 = 0;
        class108.field1914 = 0;
        class22.field401 = 0;
        class65.field1155 = 0;
        class187.field3303 = 0;
        class157.field2773 = 0;
        class90.field1620 = 0;
        class55.field1032 = 0;
        class115.field2003 = 0;
        class70.field1257 = 0;
        class232.field4248 = 0;
        client.field2689 = 0;
        class227.field4167 = 0;
        class133.field2313 = 0;
        class156.field2751 = 0;
        class22.field382 = 0;
        class33.field666 = 0;
        class19.field319 = 0;
        class26.field542 = 0;
        class174.field3130 = 0;
        class165.field2912 = 0;
        client.field2682 = 0;
        class242.field4409 = 0;
        class155.field2727 = 0;
        class207.field3632 = 0;
        class120.field2076 = 0;
        class85.field1560 = 0;
        class149.field2620 = 0;
        class24.field466 = 0;
        class99.field1784 = 0;
        class82.field1496 = 0;
        class94.field1654 = 0;
        class194.field3409 = 0;
        class187.field3305 = 0;
        class99.field1782 = 0;
        class123.field2124 = 0;
        class9.field116 = 0;
        class140.field2427 = 0;
        class219.field3870 = 0;
        class69.field1232 = 0;
        class101.field1823 = 0;
        class207.field3661 = 0;
        class196.field3457 = 0;
        class39.field782 = 0;
        class78.field1412 = 0;
        class6.field95 = 0;
        class220.field3990 = 0;
        class110.field1927 = 0;
        class124.field2148 = 0;
        class60.field1098 = 0;
        class51.field980 = 0;
        class24.field488 = 0;
        class105.field1868 = 0;
        class173.field3063 = 0;
        class100.field1795 = 0;
        class21.field350 = 0;
        class164.field2894 = 0;
        class43.field834 = 0;
        class159.field2810 = 0;
        class147.field2516 = 0;
        class188.field3320 = 0;
        class14.field207 = 0;
        class99.field1778 = 0;
        class161.field2847 = 0;
        class117.field2019 = 0;
        class15.field241 = 0;
        class68.field1208 = 0;
        class107.field1904 = 0;
        class13.field194 = 0;
        class86.field1577 = 0;
        class262.field4675 = 0;
        class85.field1559 = 0;
        class65.field1153 = 0;
        class160.field2823 = 0;
        class131.field2267 = 0;
        class219.field3861 = 0;
        class95.field1695 = 0;
        class36.field693 = 0;
        class209.field3705 = 0;
        class90.field1622 = 0;
        class207.field3619 = 0;
        class161.field2850 = 0;
        class227.field4173 = 0;
        class155.field2716 = 0;
        class69.field1234 = 0;
        class30.field614 = 0;
        class60.field1103 = 0;
        class43.field845 = 0;
        class24.field493 = 0;
        class94.field1675 = 0;
        class99.field1785 = 0;
        class243.field4413 = 0;
        class86.field1562 = 0;
        class21.field338 = 0;
        class46.field920 = 0;
        class235.field4341 = 0;
        class178.field3215 = 0;
        class169.field2979 = 0;
        class269.field4766 = 0;
        class69.field1226 = 0;
        class22.field407 = 0;
        class34.field678 = 0;
        class271.field4792 = 0;
        class94.field1653 = 0;
        class119.field2056 = 0;
        class81.field1471 = 0;
        class24.field444 = 0;
        class281.field4932 = 0;
        class62.field1131 = 0;
        class48.field952 = 0;
        class107.field1910 = 0;
        class71.field1261 = 0;
        class123.field2127 = 0;
        class286.field5083 = 0;
        class188.field3325 = 0;
        class173.field3053 = 0;
        class9.field128 = 0;
        class240.field4386 = 0;
        class278.field4878 = 0;
        class173.field3107 = 0;
        class72.field1290 = 0;
        class169.field2982 = 0;
        class235.field4345 = 0;
        field1531 = 0;
        class101.field1825 = 0;
        class73.field1353 = 0;
        class14.field222 = 0;
        class149.field2621 = 0;
        class126.field2181 = 0;
        class202.field3561 = 0;
        class261.field4643 = 0;
        class105.field1856 = 0;
        class82.field1505 = 0;
        class207.field3665 = 0;
        class40.field796 = 0;
        class135.field2334 = 0;
        class100.field1791 = 0;
        class230.field4232 = 0;
        class24.field499 = 0;
        class94.field1660 = 0;
        class69.field1227 = 0;
        class285.field5007 = 0;
        class201.field3547 = 0;
        class157.field2785 = 0;
        class112.field1960 = 0;
        class183.field3260 = 0;
        class24.field507 = 0;
        class199.field3477 = 0;
        class131.field2272 = 0;
        class36.field694 = 0;
        class1.field23 = 0;
        class163.field2888 = 0;
        class275.field4820 = 0;
        class21.field345 = 0;
        class185.field3279 = 0;
        class90.field1618 = 0;
        class179.field3218 = 0;
        class107.field1898 = 0;
        class82.field1502 = 0;
        class3.field51 = 0;
        class2.field30 = 0;
        class176.field3179 = 0;
        class65.field1164 = 0;
        class112.field1943 = 0;
        class215.field3829 = 0;
        class241.field4391 = 0;
        class269.field4763 = 0;
        class22.field409 = 0;
        class207.field3659 = 0;
        class86.field1578 = 0;
        class140.field2408 = 0;
        class155.field2723 = 0;
        class113.field1968 = 0;
        class125.field2173 = 0;
        class216.field3841 = 0;
        class256.field4582 = 0;
        class49.field976 = 0;
        class155.field2728 = 0;
        class213.field3775 = 0;
        class18.field303 = 0;
        class207.field3651 = 0;
        class244.field4431 = 0;
        class149.field2614 = 0;
        class149.field2622 = 0;
        class276.field4856 = 0;
        class110.field1922 = 0;
        class169.field2973 = 0;
        class21.field336 = 0;
        class22.field415 = 0;
        class223.field4083 = 0;
        class100.field1798 = 0;
        class191.field3374 = 0;
        class51.field988 = 0;
        class147.field2522 = 0;
        class175.field3162 = 0;
        class177.field3198 = 0;
        class149.field2565 = 0;
        class207.field3648 = 0;
        class116.field2014 = 0;
        class275.field4819 = 0;
        class273.field4803 = 0;
        class283.field4980 = 0;
        class126.field2185 = 0;
        class9.field126 = 0;
        class207.field3671 = 0;
        class69.field1222 = 0;
        class153.field2659 = 0;
        class127.field2213 = 0;
        class190.field3360 = 0;
        class24.field476 = 0;
        class237.field4362 = 0;
        class286.field5087 = 0;
        class117.field2032 = 0;
        class214.field3804 = 0;
        class248.field4491 = 0;
        class5.field72 = 0;
        class124.field2149 = 0;
        class150.field2636 = 0;
        class101.field1828 = 0;
        class81.field1469 = 0;
        class105.field1862 = 0;
        class119.field2058 = 0;
        class43.field841 = 0;
        class3.field45 = 0;
        class241.field4392 = 0;
        class286.field5017 = 0;
        class149.field2606 = 0;
        class58.field1067 = 0;
        class193.field3402 = 0;
        class214.field3797 = 0;
        class144.field2481 = 0;
        class194.field3406 = 0;
        class99.field1764 = 0;
        class14.field225 = 0;
        class5.field74 = 0;
        class208.field3693 = 0;
        class277.field4859 = 0;
        class141.field2443 = 0;
        class138.field2392 = 0;
        class99.field1771 = 0;
        class195.field3423 = 0;
        class279.field4889 = 0;
        class86.field1571 = 0;
        class255.field4571 = 0;
        class214.field3789 = 0;
        class149.field2590 = 0;
        class150.field2632 = 0;
        class207.field3621 = 0;
        class164.field2907 = 0;
        class5.field84 = 0;
        class132.field2286 = 0;
        class147.field2530 = 0;
        class207.field3655 = 0;
        class1.field18 = 0;
        class244.field4424 = 0;
        class178.field3211 = 0;
        class123.field2128 = 0;
        class157.field2783 = 0;
        class124.field2165 = 0;
        class237.field4370 = 0;
        class182.field3243 = 0;
        class72.field1331 = 0;
        class136.field2346 = 0;
        class85.field1540 = 0;
        class149.field2615 = 0;
        class259.field4627 = 0;
        class24.field482 = 0;
        class134.field2323 = 0;
        class188.field3324 = 0;
        class10.field145 = 0;
        class173.field3100 = 0;
        class86.field1572 = 0;
        class164.field2906 = 0;
        class277.field4863 = 0;
        class65.field1167 = 0;
        class99.field1758 = 0;
        class178.field3204 = 0;
        client.field2675 = 0;
        class58.field1072 = 0;
        class149.field2608 = 0;
        class97.field1703 = 0;
        class284.field4991 = 0;
        class22.field411 = 0;
        class199.field3482 = 0;
        class272.field4793 = 0;
        class169.field2978 = 0;
        class191.field3368 = 0;
        class214.field3793 = 0;
        class215.field3820 = 0;
        class254.field4561 = 0;
        class207.field3644 = 0;
        class227.field4156 = 0;
        class207.field3677 = 0;
        class116.field2007 = 0;
        class46.field917 = 0;
        class162.field2872 = 0;
        class24.field448 = 0;
        class276.field4850 = 0;
        class14.field228 = 0;
        class43.field847 = 0;
        class158.field2794 = 0;
        class169.field2960 = 0;
        class199.field3501 = 0;
        class117.field2028 = 0;
        class202.field3563 = 0;
        class49.field956 = 0;
        class247.field4480 = 0;
        class97.field1702 = 0;
        class173.field3099 = 0;
        class265.field4700 = 0;
        class173.field3112 = 0;
        class21.field334 = 0;
        class199.field3496 = 0;
        class80.field1461 = 0;
        class286.field5046 = 0;
        class245.field4441 = 0;
        class170.field3007 = 0;
        class164.field2890 = 0;
        class147.field2519 = 0;
        class189.field3336 = 0;
        class151.field2644 = 0;
        class58.field1060 = 0;
        class149.field2595 = 0;
        class97.field1717 = 0;
        class215.field3830 = 0;
        class228.field4182 = 0;
        class127.field2201 = 0;
        class133.field2300 = 0;
        class275.field4830 = 0;
        class1.field12 = 0;
        class247.field4471 = 0;
        class255.field4565 = 0;
        class288.field5131 = 0;
        class212.field3773 = 0;
        class246.field4463 = 0;
        class99.field1768 = 0;
        class87.field1581 = 0;
        class172.field3045 = 0;
        class24.field450 = 0;
        class281.field4943 = 0;
        class275.field4814 = 0;
        class149.field2618 = 0;
        class183.field3257 = 0;
        class140.field2414 = 0;
        class106.field1882 = 0;
        class207.field3627 = 0;
        class280.field4926 = 0;
        class156.field2741 = 0;
        class99.field1790 = 0;
        class31.field623 = 0;
        class133.field2309 = 0;
        class135.field2331 = 0;
        class233.field4283 = 0;
        class97.field1713 = 0;
        class193.field3403 = 0;
        class254.field4562 = 0;
        class220.field3895 = 0;
        class190.field3342 = 0;
        class155.field2708 = 0;
        class225.field4105 = 0;
        class265.field4691 = 0;
        class127.field2203 = 0;
        class199.field3494 = 0;
        class284.field4987 = 0;
        class286.field5106 = 0;
        class62.field1130 = 0;
        class18.field311 = 0;
        class34.field684 = 0;
        client.field2686 = 0;
        class164.field2899 = 0;
        class55.field1023 = 0;
        class233.field4301 = 0;
        class22.field385 = 0;
        class107.field1893 = 0;
        class197.field3462 = 0;
        class24.field474 = 0;
        class167.field2935 = 0;
        class195.field3432 = 0;
        class94.field1670 = 0;
        class284.field4992 = 0;
        class2.field33 = 0;
        class160.field2831 = 0;
        class207.field3642 = 0;
        class127.field2195 = 0;
        class174.field3128 = 0;
        class158.field2798 = 0;
        class1.field1 = 0;
        class282.field4949 = 0;
        class230.field4222 = 0;
        class112.field1953 = 0;
        class105.field1871 = 0;
        class275.field4826 = 0;
        class282.field4948 = 0;
        class147.field2511 = 0;
        class85.field1556 = 0;
        class112.field1947 = 0;
        class1.field21 = 0;
        class224.field4094 = 0;
        class193.field3401 = 0;
        class228.field4184 = 0;
        class155.field2718 = 0;
        class99.field1748 = 0;
        class153.field2666 = 0;
        class154.field2669 = 0;
        class21.field347 = 0;
        class124.field2167 = 0;
        class161.field2845 = 0;
        class136.field2344 = 0;
        class156.field2731 = 0;
        class207.field3672 = 0;
        class55.field1030 = 0;
        class72.field1288 = 0;
        class3.field52 = 0;
        class221.field4069 = 0;
        class14.field233 = 0;
        class283.field4979 = 0;
        class138.field2395 = 0;
        class165.field2918 = 0;
        class44.field876 = 0;
        class34.field683 = 0;
        class237.field4372 = 0;
        class170.field2994 = 0;
        class121.field2094 = 0;
        class94.field1681 = 0;
        class179.field3220 = 0;
        class273.field4805 = 0;
        class158.field2802 = 0;
        class25.field522 = 0;
        class59.field1079 = 0;
        class27.field557 = 0;
        class117.field2025 = 0;
        class113.field1974 = 0;
        class14.field213 = 0;
        class284.field4997 = 0;
        class10.field148 = 0;
        class128.field2239 = 0;
        class245.field4438 = 0;
        class94.field1658 = 0;
        class243.field4414 = 0;
        class196.field3440 = 0;
        class132.field2278 = 0;
        class261.field4652 = 0;
        class4.field58 = 0;
        class282.field4951 = 0;
        class133.field2296 = 0;
        class140.field2404 = 0;
        class246.field4466 = 0;
        class196.field3441 = 0;
        class265.field4703 = 0;
        class227.field4161 = 0;
        class162.field2869 = 0;
        class40.field805 = 0;
        class105.field1869 = 0;
        class124.field2142 = 0;
        class79.field1446 = 0;
        class69.field1223 = 0;
        class4.field61 = 0;
        class67.field1197 = 0;
        class233.field4285 = 0;
        class86.field1564 = 0;
        class256.field4578 = 0;
        class105.field1863 = 0;
        class278.field4885 = 0;
        client.field2696 = 0;
        class19.field318 = 0;
        class24.field485 = 0;
        class268.field4733 = 0;
        class51.field987 = 0;
        class128.field2237 = 0;
        class13.field178 = 0;
        class207.field3658 = 0;
        class243.field4415 = 0;
        class68.field1215 = 0;
        class149.field2582 = 0;
        class262.field4664 = 0;
        class149.field2594 = 0;
        class24.field473 = 0;
        class216.field3845 = 0;
        class58.field1071 = 0;
        class262.field4672 = 0;
        class223.field4079 = 0;
        class140.field2409 = 0;
        class246.field4468 = 0;
        class194.field3414 = 0;
        class57.field1054 = 0L;
        class260.field4642 = true;
        class197.field3468 = 0;
        class45.field887.field2939 = 0;
        class124.method876(-110);
        class280.field4923 = 0;
        class245.field4443 = -1;
        class249.field4515 = -1;
        class190.field3349 = -1;
        class280.field4915 = -1;
        class51.field994 = 0;
        class261.field4645.field2593 = 0;
        class17.field262.field2593 = 0;
        class132.field2293 = 0;
        for (int var1 = 0; var1 < class170.field3025.length; var1++) {
            class170.field3025[var1] = null;
        }
        class256.field4588 = false;
        class268.field4751 = 0;
        class65.method473(-28987, 0);
        for (int var2 = 0; var2 < 100; var2++) {
            class25.field530[var2] = null;
        }
        class242.field4404 = 0;
        class138.field2390 = 0;
        class78.field1429 = -1;
        class70.field1254 = (int) (Math.random() * 120.0D) - 60;
        class117.field2015 = 0;
        class286.field5112 = (int) (Math.random() * 110.0D) - 55;
        class185.field3283 = 0;
        class233.field4282 = 0;
        class225.field4098 = (int) (Math.random() * 30.0D) - 20;
        class31.field629 = 0;
        class266.field4711 = (int) (Math.random() * 20.0D) - 10 & 0x7FF;
        class136.field2341 = (int) (Math.random() * 100.0D) - 50;
        class20.field328 = (int) (Math.random() * 80.0D) - 40;
        class34.field680 = 0;
        class78.field1418 = 0;
        class4.field71 = false;
        for (int var3 = 0; var3 < 2048; var3++) {
            class169.field2953[var3] = null;
            class119.field2064[var3] = null;
        }
        for (int var4 = 0; var4 < 32768; var4++) {
            class79.field1449[var4] = null;
        }
        class202.field3565 = class169.field2953[2047] = new class14();
        class167.field2933.method924(-30865);
        class43.field838.method924(-30865);
        if (class276.field4844 != null) {
            for (int var5 = 0; var5 < 4; var5++) {
                for (int var6 = 0; var6 < 104; var6++) {
                    for (int var7 = 0; var7 < 104; var7++) {
                        class276.field4844[var5][var6][var7] = null;
                    }
                }
            }
        }
        class250.field4527 = new class132();
        class25.field534 = 0;
        class138.field2397 = 0;
        class157.method1151(28756);
        class195.method1359(0);
        class237.field4373 = 0;
        class25.field531 = 0;
        class232.field4262 = 0;
        class137.field2369 = 0;
        class55.field1034 = 0;
        class217.field3856 = 0;
        class250.field4523 = 0;
        class157.field2789 = 0;
        class90.field1616 = 0;
        class164.field2902 = 0;
        for (int var8 = 0; var8 < class186.field3291.length; var8++) {
            class186.field3291[var8] = -1;
        }
        if (class165.field2915 != -1) {
            class107.method776(true, class165.field2915);
        }
        for (class47 var9 = (class47) class171.field3028.method1873((byte) -93); var9 != null; var9 = (class47) class171.field3028.method1866((byte) -128)) {
            class150.method1091(-11138, true, var9);
        }
        class165.field2915 = -1;
        class171.field3028 = new class275(8);
        class255.method1772(19052);
        class256.field4588 = false;
        class268.field4751 = 0;
        class89.field1605 = null;
        class126.field2192.method365(-1, -128, new int[5], (int[]) null, arg0, -1);
        for (int var10 = 0; var10 < 8; var10++) {
            class40.field808[var10] = null;
            class183.field3251[var10] = false;
            class108.field1919[var10] = -1;
        }
        class19.method114((byte) 97);
        class1.field10 = true;
        for (int var11 = 0; var11 < 100; var11++) {
            class140.field2431[var11] = true;
        }
        class277.field4866 = 0;
        class81.field1467 = null;
        class105.field1859 = null;
        for (int var12 = 0; var12 < 6; var12++) {
            class154.field2671[var12] = new class265();
        }
        for (int var13 = 0; var13 < 25; var13++) {
            class247.field4486[var13] = 0;
            class119.field2059[var13] = 0;
            class62.field1135[var13] = 0;
        }
        class261.field4651 = 0;
        class13.field183 = false;
        class233.field4291 = true;
        class273.field4806 = class107.field1905;
        class207.field3679 = class227.field4164 = class241.field4397 = class237.field4365 = new short[256];
        class98.method692(true);
        class221.field4068 = false;
        class178.method1271(2);
    }

    @OriginalMember(owner = "client!lc", name = "a", descriptor = "(I)V")
    public static void method623(int arg0) {
        field1535 = null;
        field1533 = null;
        field1526 = null;
        field1520 = null;
        if (arg0 != 0) {
            field1536 = null;
        }
        field1525 = null;
        field1527 = null;
        field1523 = null;
        field1530 = null;
        field1522 = null;
        field1536 = null;
    }

    @OriginalMember(owner = "client!lc", name = "a", descriptor = "(Lmd;Lqk;I)Lqk;")
    public static final class207 method624(class220 arg0, class207 arg1, int arg2) {
        if (arg2 != 0) {
            field1520 = null;
        }
        field1529++;
        if (arg1.method1467(-1, class87.field1584) == -1) {
            return arg1;
        }
        while (true) {
            int var3 = arg1.method1467(-1, class120.field2085);
            if (var3 == -1) {
                while (true) {
                    int var4 = arg1.method1467(-1, class101.field1829);
                    if (var4 == -1) {
                        while (true) {
                            int var5 = arg1.method1467(-1, class157.field2784);
                            if (var5 == -1) {
                                while (true) {
                                    int var6 = arg1.method1467(-1, class271.field4786);
                                    if (var6 == -1) {
                                        while (true) {
                                            int var7 = arg1.method1467(-1, class51.field992);
                                            if (var7 == -1) {
                                                while (true) {
                                                    int var8 = arg1.method1467(-1, class244.field4426);
                                                    if (var8 == -1) {
                                                        return arg1;
                                                    }
                                                    class207 var9 = class100.field1800;
                                                    if (class81.field1468 != null) {
                                                        var9 = class129.method906(arg2 ^ 0xFFFFFEFF, class81.field1468.field1697);
                                                        try {
                                                            if (class81.field1468.field1699 != null) {
                                                                byte[] var10 = ((String) class81.field1468.field1699).getBytes("ISO-8859-1");
                                                                var9 = class140.method971(var10.length, 0, arg2 ^ 0x2, var10);
                                                            }
                                                        } catch (UnsupportedEncodingException var11) {
                                                        }
                                                    }
                                                    arg1 = class105.method757(false, new class207[] { arg1.method1427(-17195, 0, var8), var9, arg1.method1464(arg2 - 23886, var8 + 4) });
                                                }
                                            }
                                            arg1 = class105.method757(false, new class207[] { arg1.method1427(-17195, 0, var7), class177.method1269(18895, class247.method1736(4, arg0, -10)), arg1.method1464(-23886, var7 + 2) });
                                        }
                                    }
                                    arg1 = class105.method757(false, new class207[] { arg1.method1427(-17195, 0, var6), class177.method1269(arg2 + 18895, class247.method1736(3, arg0, arg2 + -10)), arg1.method1464(-23886, var6 + 2) });
                                }
                            }
                            arg1 = class105.method757(false, new class207[] { arg1.method1427(-17195, 0, var5), class177.method1269(18895, class247.method1736(2, arg0, arg2 ^ 0xFFFFFFF6)), arg1.method1464(-23886, var5 + 2) });
                        }
                    }
                    arg1 = class105.method757(false, new class207[] { arg1.method1427(-17195, 0, var4), class177.method1269(18895, class247.method1736(1, arg0, -10)), arg1.method1464(-23886, var4 + 2) });
                }
            }
            arg1 = class105.method757(false, new class207[] { arg1.method1427(-17195, 0, var3), class177.method1269(18895, class247.method1736(0, arg0, -10)), arg1.method1464(arg2 ^ 0xFFFFA2B2, var3 + 2) });
        }
    }
}
